<?xml version="1.0"?>
<opencv_storage>
<stage9>
  <maxWeakCount>6</maxWeakCount>
  <stageThreshold>-1.1940180063247681e+00</stageThreshold>
  <weakClassifiers>
    <_>
      <internalNodes>
        0 -1 153886 7.1771433576941490e-03</internalNodes>
      <leafValues>
        -8.2874619960784912e-01 2.3232322931289673e-01</leafValues></_>
    <_>
      <internalNodes>
        0 -1 71842 3.2147711608558893e-03</internalNodes>
      <leafValues>
        3.8068664073944092e-01 -8.3068430423736572e-01</leafValues></_>
    <_>
      <internalNodes>
        0 -1 360064 -1.0706337634474039e-03</internalNodes>
      <leafValues>
        8.4734636545181274e-01 -3.6841002106666565e-01</leafValues></_>
    <_>
      <internalNodes>
        0 -1 342855 -1.0634772479534149e-03</internalNodes>
      <leafValues>
        8.2113873958587646e-01 -2.9694890975952148e-01</leafValues></_>
    <_>
      <internalNodes>
        0 -1 109935 -1.6602722462266684e-03</internalNodes>
      <leafValues>
        6.7072224617004395e-01 -3.8141453266143799e-01</leafValues></_>
    <_>
      <internalNodes>
        0 -1 21902 -4.1213270276784897e-02</internalNodes>
      <leafValues>
        4.5111653208732605e-01 -6.2657862901687622e-01</leafValues></_></weakClassifiers></stage9>
</opencv_storage>
