<?xml version="1.0"?>
<opencv_storage>
<stage10>
  <maxWeakCount>5</maxWeakCount>
  <stageThreshold>-1.1023747920989990e+00</stageThreshold>
  <weakClassifiers>
    <_>
      <internalNodes>
        0 -1 263544 -8.1198140978813171e-02</internalNodes>
      <leafValues>
        9.6330273151397705e-01 -5.8979809284210205e-01</leafValues></_>
    <_>
      <internalNodes>
        0 -1 503815 1.2292102910578251e-03</internalNodes>
      <leafValues>
        4.0453344583511353e-01 -7.0975250005722046e-01</leafValues></_>
    <_>
      <internalNodes>
        0 -1 346613 -8.1124238204210997e-04</internalNodes>
      <leafValues>
        -9.1256690025329590e-01 2.9126957058906555e-01</leafValues></_>
    <_>
      <internalNodes>
        0 -1 91051 -1.2986687012016773e-02</internalNodes>
      <leafValues>
        6.2917429208755493e-01 -4.8315167427062988e-01</leafValues></_>
    <_>
      <internalNodes>
        0 -1 431776 -5.0000380724668503e-03</internalNodes>
      <leafValues>
        4.7860845923423767e-01 -5.8743172883987427e-01</leafValues></_></weakClassifiers></stage10>
</opencv_storage>
